digraph Tree {
node [shape=box] ;
0 [label="alcohol <= 10.75\nentropy = 1.72\nsamples = 1119\nvalue = [8, 32, 474, 443, 147, 15]\nclass = 5"] ;
1 [label="sulphates <= 0.575\nentropy = 1.437\nsamples = 715\nvalue = [7, 21, 406, 246, 33, 2]\nclass = 5"] ;
0 -> 1 [labeldistance=2.5, labelangle=45, headlabel="True"] ;
2 [label="alcohol <= 10.15\nentropy = 1.17\nsamples = 278\nvalue = [4, 14, 200, 58, 2, 0]\nclass = 5"] ;
1 -> 2 ;
3 [label="total sulfur dioxide <= 29.5\nentropy = 1.031\nsamples = 235\nvalue = [2, 12, 181, 39, 1, 0]\nclass = 5"] ;
2 -> 3 ;
4 [label="sulphates <= 0.525\nentropy = 1.166\nsamples = 75\nvalue = [0, 10, 55, 9, 1, 0]\nclass = 5"] ;
3 -> 4 ;
5 [label="pH <= 3.24\nentropy = 1.02\nsamples = 52\nvalue = [0, 9, 40, 2, 1, 0]\nclass = 5"] ;
4 -> 5 ;
6 [label="chlorides <= 0.052\nentropy = 0.286\nsamples = 20\nvalue = [0, 0, 19, 1, 0, 0]\nclass = 5"] ;
5 -> 6 ;
7 [label="entropy = 0.0\nsamples = 1\nvalue = [0, 0, 0, 1, 0, 0]\nclass = 6"] ;
6 -> 7 ;
8 [label="entropy = 0.0\nsamples = 19\nvalue = [0, 0, 19, 0, 0, 0]\nclass = 5"] ;
6 -> 8 ;
9 [label="residual sugar <= 1.3\nentropy = 1.226\nsamples = 32\nvalue = [0, 9, 21, 1, 1, 0]\nclass = 5"] ;
5 -> 9 ;
10 [label="entropy = 0.0\nsamples = 1\nvalue = [0, 0, 0, 0, 1, 0]\nclass = 7"] ;
9 -> 10 ;
11 [label="fixed acidity <= 7.35\nentropy = 1.058\nsamples = 31\nvalue = [0, 9, 21, 1, 0, 0]\nclass = 5"] ;
9 -> 11 ;
12 [label="citric acid <= 0.085\nentropy = 0.544\nsamples = 16\nvalue = [0, 2, 14, 0, 0, 0]\nclass = 5"] ;
11 -> 12 ;
13 [label="entropy = 0.0\nsamples = 12\nvalue = [0, 0, 12, 0, 0, 0]\nclass = 5"] ;
12 -> 13 ;
14 [label="total sulfur dioxide <= 24.0\nentropy = 1.0\nsamples = 4\nvalue = [0, 2, 2, 0, 0, 0]\nclass = 4"] ;
12 -> 14 ;
15 [label="entropy = 0.0\nsamples = 2\nvalue = [0, 2, 0, 0, 0, 0]\nclass = 4"] ;
14 -> 15 ;
16 [label="entropy = 0.0\nsamples = 2\nvalue = [0, 0, 2, 0, 0, 0]\nclass = 5"] ;
14 -> 16 ;
17 [label="volatile acidity <= 0.595\nentropy = 1.287\nsamples = 15\nvalue = [0, 7, 7, 1, 0, 0]\nclass = 4"] ;
11 -> 17 ;
18 [label="chlorides <= 0.084\nentropy = 0.918\nsamples = 3\nvalue = [0, 2, 0, 1, 0, 0]\nclass = 4"] ;
17 -> 18 ;
19 [label="entropy = 0.0\nsamples = 1\nvalue = [0, 0, 0, 1, 0, 0]\nclass = 6"] ;
18 -> 19 ;
20 [label="entropy = 0.0\nsamples = 2\nvalue = [0, 2, 0, 0, 0, 0]\nclass = 4"] ;
18 -> 20 ;
21 [label="sulphates <= 0.465\nentropy = 0.98\nsamples = 12\nvalue = [0, 5, 7, 0, 0, 0]\nclass = 5"] ;
17 -> 21 ;
22 [label="entropy = 0.0\nsamples = 3\nvalue = [0, 3, 0, 0, 0, 0]\nclass = 4"] ;
21 -> 22 ;
23 [label="density <= 0.997\nentropy = 0.764\nsamples = 9\nvalue = [0, 2, 7, 0, 0, 0]\nclass = 5"] ;
21 -> 23 ;
24 [label="sulphates <= 0.495\nentropy = 0.918\nsamples = 3\nvalue = [0, 2, 1, 0, 0, 0]\nclass = 4"] ;
23 -> 24 ;
25 [label="entropy = 0.0\nsamples = 2\nvalue = [0, 2, 0, 0, 0, 0]\nclass = 4"] ;
24 -> 25 ;
26 [label="entropy = 0.0\nsamples = 1\nvalue = [0, 0, 1, 0, 0, 0]\nclass = 5"] ;
24 -> 26 ;
27 [label="entropy = 0.0\nsamples = 6\nvalue = [0, 0, 6, 0, 0, 0]\nclass = 5"] ;
23 -> 27 ;
28 [label="free sulfur dioxide <= 4.5\nentropy = 1.121\nsamples = 23\nvalue = [0, 1, 15, 7, 0, 0]\nclass = 5"] ;
4 -> 28 ;
29 [label="citric acid <= 0.125\nentropy = 0.918\nsamples = 3\nvalue = [0, 1, 0, 2, 0, 0]\nclass = 6"] ;
28 -> 29 ;
30 [label="entropy = 0.0\nsamples = 1\nvalue = [0, 1, 0, 0, 0, 0]\nclass = 4"] ;
29 -> 30 ;
31 [label="entropy = 0.0\nsamples = 2\nvalue = [0, 0, 0, 2, 0, 0]\nclass = 6"] ;
29 -> 31 ;
32 [label="citric acid <= 0.105\nentropy = 0.811\nsamples = 20\nvalue = [0, 0, 15, 5, 0, 0]\nclass = 5"] ;
28 -> 32 ;
33 [label="pH <= 3.425\nentropy = 1.0\nsamples = 10\nvalue = [0, 0, 5, 5, 0, 0]\nclass = 5"] ;
32 -> 33 ;
34 [label="chlorides <= 0.088\nentropy = 0.863\nsamples = 7\nvalue = [0, 0, 2, 5, 0, 0]\nclass = 6"] ;
33 -> 34 ;
35 [label="entropy = 0.0\nsamples = 5\nvalue = [0, 0, 0, 5, 0, 0]\nclass = 6"] ;
34 -> 35 ;
36 [label="entropy = 0.0\nsamples = 2\nvalue = [0, 0, 2, 0, 0, 0]\nclass = 5"] ;
34 -> 36 ;
37 [label="entropy = 0.0\nsamples = 3\nvalue = [0, 0, 3, 0, 0, 0]\nclass = 5"] ;
33 -> 37 ;
38 [label="entropy = 0.0\nsamples = 10\nvalue = [0, 0, 10, 0, 0, 0]\nclass = 5"] ;
32 -> 38 ;
39 [label="chlorides <= 0.08\nentropy = 0.882\nsamples = 160\nvalue = [2, 2, 126, 30, 0, 0]\nclass = 5"] ;
3 -> 39 ;
40 [label="pH <= 3.265\nentropy = 1.024\nsamples = 77\nvalue = [2, 0, 53, 22, 0, 0]\nclass = 5"] ;
39 -> 40 ;
41 [label="sulphates <= 0.565\nentropy = 1.197\nsamples = 25\nvalue = [1, 0, 11, 13, 0, 0]\nclass = 6"] ;
40 -> 41 ;
42 [label="free sulfur dioxide <= 33.5\nentropy = 0.959\nsamples = 21\nvalue = [0, 0, 8, 13, 0, 0]\nclass = 6"] ;
41 -> 42 ;
43 [label="residual sugar <= 2.05\nentropy = 0.852\nsamples = 18\nvalue = [0, 0, 5, 13, 0, 0]\nclass = 6"] ;
42 -> 43 ;
44 [label="entropy = 0.0\nsamples = 2\nvalue = [0, 0, 2, 0, 0, 0]\nclass = 5"] ;
43 -> 44 ;
45 [label="chlorides <= 0.075\nentropy = 0.696\nsamples = 16\nvalue = [0, 0, 3, 13, 0, 0]\nclass = 6"] ;
43 -> 45 ;
46 [label="chlorides <= 0.072\nentropy = 0.954\nsamples = 8\nvalue = [0, 0, 3, 5, 0, 0]\nclass = 6"] ;
45 -> 46 ;
47 [label="entropy = 0.0\nsamples = 5\nvalue = [0, 0, 0, 5, 0, 0]\nclass = 6"] ;
46 -> 47 ;
48 [label="entropy = 0.0\nsamples = 3\nvalue = [0, 0, 3, 0, 0, 0]\nclass = 5"] ;
46 -> 48 ;
49 [label="entropy = 0.0\nsamples = 8\nvalue = [0, 0, 0, 8, 0, 0]\nclass = 6"] ;
45 -> 49 ;
50 [label="entropy = 0.0\nsamples = 3\nvalue = [0, 0, 3, 0, 0, 0]\nclass = 5"] ;
42 -> 50 ;
51 [label="pH <= 3.24\nentropy = 0.811\nsamples = 4\nvalue = [1, 0, 3, 0, 0, 0]\nclass = 5"] ;
41 -> 51 ;
52 [label="entropy = 0.0\nsamples = 3\nvalue = [0, 0, 3, 0, 0, 0]\nclass = 5"] ;
51 -> 52 ;
53 [label="entropy = 0.0\nsamples = 1\nvalue = [1, 0, 0, 0, 0, 0]\nclass = 3"] ;
51 -> 53 ;
54 [label="volatile acidity <= 0.42\nentropy = 0.796\nsamples = 52\nvalue = [1, 0, 42, 9, 0, 0]\nclass = 5"] ;
40 -> 54 ;
55 [label="fixed acidity <= 6.2\nentropy = 0.722\nsamples = 5\nvalue = [0, 0, 1, 4, 0, 0]\nclass = 6"] ;
54 -> 55 ;
56 [label="entropy = 0.0\nsamples = 1\nvalue = [0, 0, 1, 0, 0, 0]\nclass = 5"] ;
55 -> 56 ;
57 [label="entropy = 0.0\nsamples = 4\nvalue = [0, 0, 0, 4, 0, 0]\nclass = 6"] ;
55 -> 57 ;
58 [label="volatile acidity <= 0.945\nentropy = 0.634\nsamples = 47\nvalue = [1, 0, 41, 5, 0, 0]\nclass = 5"] ;
54 -> 58 ;
59 [label="total sulfur dioxide <= 31.5\nentropy = 0.439\nsamples = 44\nvalue = [0, 0, 40, 4, 0, 0]\nclass = 5"] ;
58 -> 59 ;
60 [label="entropy = 0.0\nsamples = 1\nvalue = [0, 0, 0, 1, 0, 0]\nclass = 6"] ;
59 -> 60 ;
61 [label="free sulfur dioxide <= 37.5\nentropy = 0.365\nsamples = 43\nvalue = [0, 0, 40, 3, 0, 0]\nclass = 5"] ;
59 -> 61 ;
62 [label="total sulfur dioxide <= 43.0\nentropy = 0.276\nsamples = 42\nvalue = [0, 0, 40, 2, 0, 0]\nclass = 5"] ;
61 -> 62 ;
63 [label="pH <= 3.325\nentropy = 0.684\nsamples = 11\nvalue = [0, 0, 9, 2, 0, 0]\nclass = 5"] ;
62 -> 63 ;
64 [label="free sulfur dioxide <= 20.5\nentropy = 0.918\nsamples = 3\nvalue = [0, 0, 1, 2, 0, 0]\nclass = 6"] ;
63 -> 64 ;
65 [label="entropy = 0.0\nsamples = 2\nvalue = [0, 0, 0, 2, 0, 0]\nclass = 6"] ;
64 -> 65 ;
66 [label="entropy = 0.0\nsamples = 1\nvalue = [0, 0, 1, 0, 0, 0]\nclass = 5"] ;
64 -> 66 ;
67 [label="entropy = 0.0\nsamples = 8\nvalue = [0, 0, 8, 0, 0, 0]\nclass = 5"] ;
63 -> 67 ;
68 [label="entropy = 0.0\nsamples = 31\nvalue = [0, 0, 31, 0, 0, 0]\nclass = 5"] ;
62 -> 68 ;
69 [label="entropy = 0.0\nsamples = 1\nvalue = [0, 0, 0, 1, 0, 0]\nclass = 6"] ;
61 -> 69 ;
70 [label="residual sugar <= 2.2\nentropy = 1.585\nsamples = 3\nvalue = [1, 0, 1, 1, 0, 0]\nclass = 3"] ;
58 -> 70 ;
71 [label="entropy = 0.0\nsamples = 1\nvalue = [1, 0, 0, 0, 0, 0]\nclass = 3"] ;
70 -> 71 ;
72 [label="chlorides <= 0.069\nentropy = 1.0\nsamples = 2\nvalue = [0, 0, 1, 1, 0, 0]\nclass = 5"] ;
70 -> 72 ;
73 [label="entropy = 0.0\nsamples = 1\nvalue = [0, 0, 0, 1, 0, 0]\nclass = 6"] ;
72 -> 73 ;
74 [label="entropy = 0.0\nsamples = 1\nvalue = [0, 0, 1, 0, 0, 0]\nclass = 5"] ;
72 -> 74 ;
75 [label="citric acid <= 0.265\nentropy = 0.618\nsamples = 83\nvalue = [0, 2, 73, 8, 0, 0]\nclass = 5"] ;
39 -> 75 ;
76 [label="residual sugar <= 2.95\nentropy = 0.573\nsamples = 59\nvalue = [0, 0, 51, 8, 0, 0]\nclass = 5"] ;
75 -> 76 ;
77 [label="fixed acidity <= 7.75\nentropy = 0.348\nsamples = 46\nvalue = [0, 0, 43, 3, 0, 0]\nclass = 5"] ;
76 -> 77 ;
78 [label="total sulfur dioxide <= 87.5\nentropy = 0.65\nsamples = 18\nvalue = [0, 0, 15, 3, 0, 0]\nclass = 5"] ;
77 -> 78 ;
79 [label="entropy = 0.0\nsamples = 10\nvalue = [0, 0, 10, 0, 0, 0]\nclass = 5"] ;
78 -> 79 ;
80 [label="alcohol <= 9.85\nentropy = 0.954\nsamples = 8\nvalue = [0, 0, 5, 3, 0, 0]\nclass = 5"] ;
78 -> 80 ;
81 [label="alcohol <= 9.6\nentropy = 0.971\nsamples = 5\nvalue = [0, 0, 2, 3, 0, 0]\nclass = 6"] ;
80 -> 81 ;
82 [label="entropy = 0.0\nsamples = 2\nvalue = [0, 0, 2, 0, 0, 0]\nclass = 5"] ;
81 -> 82 ;
83 [label="entropy = 0.0\nsamples = 3\nvalue = [0, 0, 0, 3, 0, 0]\nclass = 6"] ;
81 -> 83 ;
84 [label="entropy = 0.0\nsamples = 3\nvalue = [0, 0, 3, 0, 0, 0]\nclass = 5"] ;
80 -> 84 ;
85 [label="entropy = 0.0\nsamples = 28\nvalue = [0, 0, 28, 0, 0, 0]\nclass = 5"] ;
77 -> 85 ;
86 [label="alcohol <= 9.533\nentropy = 0.961\nsamples = 13\nvalue = [0, 0, 8, 5, 0, 0]\nclass = 5"] ;
76 -> 86 ;
87 [label="residual sugar <= 3.1\nentropy = 0.503\nsamples = 9\nvalue = [0, 0, 8, 1, 0, 0]\nclass = 5"] ;
86 -> 87 ;
88 [label="entropy = 0.0\nsamples = 1\nvalue = [0, 0, 0, 1, 0, 0]\nclass = 6"] ;
87 -> 88 ;
89 [label="entropy = 0.0\nsamples = 8\nvalue = [0, 0, 8, 0, 0, 0]\nclass = 5"] ;
87 -> 89 ;
90 [label="entropy = 0.0\nsamples = 4\nvalue = [0, 0, 0, 4, 0, 0]\nclass = 6"] ;
86 -> 90 ;
91 [label="citric acid <= 0.31\nentropy = 0.414\nsamples = 24\nvalue = [0, 2, 22, 0, 0, 0]\nclass = 5"] ;
75 -> 91 ;
92 [label="free sulfur dioxide <= 20.0\nentropy = 0.971\nsamples = 5\nvalue = [0, 2, 3, 0, 0, 0]\nclass = 5"] ;
91 -> 92 ;
93 [label="entropy = 0.0\nsamples = 2\nvalue = [0, 2, 0, 0, 0, 0]\nclass = 4"] ;
92 -> 93 ;
94 [label="entropy = 0.0\nsamples = 3\nvalue = [0, 0, 3, 0, 0, 0]\nclass = 5"] ;
92 -> 94 ;
95 [label="entropy = 0.0\nsamples = 19\nvalue = [0, 0, 19, 0, 0, 0]\nclass = 5"] ;
91 -> 95 ;
96 [label="residual sugar <= 3.35\nentropy = 1.579\nsamples = 43\nvalue = [2, 2, 19, 19, 1, 0]\nclass = 5"] ;
2 -> 96 ;
97 [label="sulphates <= 0.535\nentropy = 1.387\nsamples = 38\nvalue = [0, 2, 19, 16, 1, 0]\nclass = 5"] ;
96 -> 97 ;
98 [label="residual sugar <= 2.4\nentropy = 0.852\nsamples = 18\nvalue = [0, 0, 13, 5, 0, 0]\nclass = 5"] ;
97 -> 98 ;
99 [label="total sulfur dioxide <= 52.0\nentropy = 0.994\nsamples = 11\nvalue = [0, 0, 6, 5, 0, 0]\nclass = 5"] ;
98 -> 99 ;
100 [label="volatile acidity <= 1.045\nentropy = 0.65\nsamples = 6\nvalue = [0, 0, 1, 5, 0, 0]\nclass = 6"] ;
99 -> 100 ;
101 [label="entropy = 0.0\nsamples = 5\nvalue = [0, 0, 0, 5, 0, 0]\nclass = 6"] ;
100 -> 101 ;
102 [label="entropy = 0.0\nsamples = 1\nvalue = [0, 0, 1, 0, 0, 0]\nclass = 5"] ;
100 -> 102 ;
103 [label="entropy = 0.0\nsamples = 5\nvalue = [0, 0, 5, 0, 0, 0]\nclass = 5"] ;
99 -> 103 ;
104 [label="entropy = 0.0\nsamples = 7\nvalue = [0, 0, 7, 0, 0, 0]\nclass = 5"] ;
98 -> 104 ;
105 [label="citric acid <= 0.335\nentropy = 1.544\nsamples = 20\nvalue = [0, 2, 6, 11, 1, 0]\nclass = 6"] ;
97 -> 105 ;
106 [label="total sulfur dioxide <= 25.0\nentropy = 1.159\nsamples = 15\nvalue = [0, 0, 4, 10, 1, 0]\nclass = 6"] ;
105 -> 106 ;
107 [label="citric acid <= 0.24\nentropy = 1.371\nsamples = 5\nvalue = [0, 0, 3, 1, 1, 0]\nclass = 5"] ;
106 -> 107 ;
108 [label="residual sugar <= 1.95\nentropy = 0.811\nsamples = 4\nvalue = [0, 0, 3, 0, 1, 0]\nclass = 5"] ;
107 -> 108 ;
109 [label="entropy = 0.0\nsamples = 1\nvalue = [0, 0, 0, 0, 1, 0]\nclass = 7"] ;
108 -> 109 ;
110 [label="entropy = 0.0\nsamples = 3\nvalue = [0, 0, 3, 0, 0, 0]\nclass = 5"] ;
108 -> 110 ;
111 [label="entropy = 0.0\nsamples = 1\nvalue = [0, 0, 0, 1, 0, 0]\nclass = 6"] ;
107 -> 111 ;
112 [label="pH <= 3.525\nentropy = 0.469\nsamples = 10\nvalue = [0, 0, 1, 9, 0, 0]\nclass = 6"] ;
106 -> 112 ;
113 [label="entropy = 0.0\nsamples = 9\nvalue = [0, 0, 0, 9, 0, 0]\nclass = 6"] ;
112 -> 113 ;
114 [label="entropy = 0.0\nsamples = 1\nvalue = [0, 0, 1, 0, 0, 0]\nclass = 5"] ;
112 -> 114 ;
115 [label="alcohol <= 10.45\nentropy = 1.522\nsamples = 5\nvalue = [0, 2, 2, 1, 0, 0]\nclass = 4"] ;
105 -> 115 ;
116 [label="fixed acidity <= 9.75\nentropy = 0.918\nsamples = 3\nvalue = [0, 2, 0, 1, 0, 0]\nclass = 4"] ;
115 -> 116 ;
117 [label="entropy = 0.0\nsamples = 2\nvalue = [0, 2, 0, 0, 0, 0]\nclass = 4"] ;
116 -> 117 ;
118 [label="entropy = 0.0\nsamples = 1\nvalue = [0, 0, 0, 1, 0, 0]\nclass = 6"] ;
116 -> 118 ;
119 [label="entropy = 0.0\nsamples = 2\nvalue = [0, 0, 2, 0, 0, 0]\nclass = 5"] ;
115 -> 119 ;
120 [label="volatile acidity <= 0.688\nentropy = 0.971\nsamples = 5\nvalue = [2, 0, 0, 3, 0, 0]\nclass = 6"] ;
96 -> 120 ;
121 [label="entropy = 0.0\nsamples = 3\nvalue = [0, 0, 0, 3, 0, 0]\nclass = 6"] ;
120 -> 121 ;
122 [label="entropy = 0.0\nsamples = 2\nvalue = [2, 0, 0, 0, 0, 0]\nclass = 3"] ;
120 -> 122 ;
123 [label="total sulfur dioxide <= 81.5\nentropy = 1.486\nsamples = 437\nvalue = [3, 7, 206, 188, 31, 2]\nclass = 5"] ;
1 -> 123 ;
124 [label="alcohol <= 9.85\nentropy = 1.521\nsamples = 370\nvalue = [3, 6, 149, 180, 30, 2]\nclass = 6"] ;
123 -> 124 ;
125 [label="fixed acidity <= 12.45\nentropy = 1.331\nsamples = 191\nvalue = [1, 4, 97, 84, 4, 1]\nclass = 5"] ;
124 -> 125 ;
126 [label="volatile acidity <= 0.855\nentropy = 1.21\nsamples = 184\nvalue = [1, 4, 97, 81, 1, 0]\nclass = 5"] ;
125 -> 126 ;
127 [label="sulphates <= 1.07\nentropy = 1.159\nsamples = 181\nvalue = [1, 2, 96, 81, 1, 0]\nclass = 5"] ;
126 -> 127 ;
128 [label="chlorides <= 0.164\nentropy = 1.092\nsamples = 166\nvalue = [1, 0, 86, 78, 1, 0]\nclass = 5"] ;
127 -> 128 ;
129 [label="volatile acidity <= 0.405\nentropy = 1.041\nsamples = 154\nvalue = [0, 0, 85, 68, 1, 0]\nclass = 5"] ;
128 -> 129 ;
130 [label="total sulfur dioxide <= 20.5\nentropy = 0.961\nsamples = 39\nvalue = [0, 0, 15, 24, 0, 0]\nclass = 6"] ;
129 -> 130 ;
131 [label="fixed acidity <= 10.7\nentropy = 0.89\nsamples = 13\nvalue = [0, 0, 9, 4, 0, 0]\nclass = 5"] ;
130 -> 131 ;
132 [label="entropy = 0.0\nsamples = 8\nvalue = [0, 0, 8, 0, 0, 0]\nclass = 5"] ;
131 -> 132 ;
133 [label="residual sugar <= 2.25\nentropy = 0.722\nsamples = 5\nvalue = [0, 0, 1, 4, 0, 0]\nclass = 6"] ;
131 -> 133 ;
134 [label="entropy = 0.0\nsamples = 4\nvalue = [0, 0, 0, 4, 0, 0]\nclass = 6"] ;
133 -> 134 ;
135 [label="entropy = 0.0\nsamples = 1\nvalue = [0, 0, 1, 0, 0, 0]\nclass = 5"] ;
133 -> 135 ;
136 [label="density <= 0.996\nentropy = 0.779\nsamples = 26\nvalue = [0, 0, 6, 20, 0, 0]\nclass = 6"] ;
130 -> 136 ;
137 [label="entropy = 0.0\nsamples = 2\nvalue = [0, 0, 2, 0, 0, 0]\nclass = 5"] ;
136 -> 137 ;
138 [label="residual sugar <= 2.25\nentropy = 0.65\nsamples = 24\nvalue = [0, 0, 4, 20, 0, 0]\nclass = 6"] ;
136 -> 138 ;
139 [label="citric acid <= 0.195\nentropy = 0.31\nsamples = 18\nvalue = [0, 0, 1, 17, 0, 0]\nclass = 6"] ;
138 -> 139 ;
140 [label="entropy = 0.0\nsamples = 1\nvalue = [0, 0, 1, 0, 0, 0]\nclass = 5"] ;
139 -> 140 ;
141 [label="entropy = 0.0\nsamples = 17\nvalue = [0, 0, 0, 17, 0, 0]\nclass = 6"] ;
139 -> 141 ;
142 [label="total sulfur dioxide <= 61.5\nentropy = 1.0\nsamples = 6\nvalue = [0, 0, 3, 3, 0, 0]\nclass = 5"] ;
138 -> 142 ;
143 [label="density <= 1.0\nentropy = 0.811\nsamples = 4\nvalue = [0, 0, 1, 3, 0, 0]\nclass = 6"] ;
142 -> 143 ;
144 [label="entropy = 0.0\nsamples = 3\nvalue = [0, 0, 0, 3, 0, 0]\nclass = 6"] ;
143 -> 144 ;
145 [label="entropy = 0.0\nsamples = 1\nvalue = [0, 0, 1, 0, 0, 0]\nclass = 5"] ;
143 -> 145 ;
146 [label="entropy = 0.0\nsamples = 2\nvalue = [0, 0, 2, 0, 0, 0]\nclass = 5"] ;
142 -> 146 ;
147 [label="free sulfur dioxide <= 18.5\nentropy = 1.026\nsamples = 115\nvalue = [0, 0, 70, 44, 1, 0]\nclass = 5"] ;
129 -> 147 ;
148 [label="residual sugar <= 1.85\nentropy = 1.067\nsamples = 91\nvalue = [0, 0, 50, 40, 1, 0]\nclass = 5"] ;
147 -> 148 ;
149 [label="total sulfur dioxide <= 28.5\nentropy = 0.667\nsamples = 23\nvalue = [0, 0, 19, 4, 0, 0]\nclass = 5"] ;
148 -> 149 ;
150 [label="total sulfur dioxide <= 11.5\nentropy = 0.946\nsamples = 11\nvalue = [0, 0, 7, 4, 0, 0]\nclass = 5"] ;
149 -> 150 ;
151 [label="entropy = 0.0\nsamples = 5\nvalue = [0, 0, 5, 0, 0, 0]\nclass = 5"] ;
150 -> 151 ;
152 [label="alcohol <= 9.35\nentropy = 0.918\nsamples = 6\nvalue = [0, 0, 2, 4, 0, 0]\nclass = 6"] ;
150 -> 152 ;
153 [label="entropy = 0.0\nsamples = 2\nvalue = [0, 0, 2, 0, 0, 0]\nclass = 5"] ;
152 -> 153 ;
154 [label="entropy = 0.0\nsamples = 4\nvalue = [0, 0, 0, 4, 0, 0]\nclass = 6"] ;
152 -> 154 ;
155 [label="entropy = 0.0\nsamples = 12\nvalue = [0, 0, 12, 0, 0, 0]\nclass = 5"] ;
149 -> 155 ;
156 [label="citric acid <= 0.325\nentropy = 1.092\nsamples = 68\nvalue = [0, 0, 31, 36, 1, 0]\nclass = 6"] ;
148 -> 156 ;
157 [label="alcohol <= 9.15\nentropy = 0.987\nsamples = 60\nvalue = [0, 0, 26, 34, 0, 0]\nclass = 6"] ;
156 -> 157 ;
158 [label="entropy = 0.0\nsamples = 7\nvalue = [0, 0, 0, 7, 0, 0]\nclass = 6"] ;
157 -> 158 ;
159 [label="sulphates <= 0.655\nentropy = 1.0\nsamples = 53\nvalue = [0, 0, 26, 27, 0, 0]\nclass = 6"] ;
157 -> 159 ;
160 [label="free sulfur dioxide <= 8.5\nentropy = 0.938\nsamples = 31\nvalue = [0, 0, 20, 11, 0, 0]\nclass = 5"] ;
159 -> 160 ;
161 [label="pH <= 3.265\nentropy = 0.845\nsamples = 11\nvalue = [0, 0, 3, 8, 0, 0]\nclass = 6"] ;
160 -> 161 ;
162 [label="entropy = 0.0\nsamples = 2\nvalue = [0, 0, 2, 0, 0, 0]\nclass = 5"] ;
161 -> 162 ;
163 [label="sulphates <= 0.62\nentropy = 0.503\nsamples = 9\nvalue = [0, 0, 1, 8, 0, 0]\nclass = 6"] ;
161 -> 163 ;
164 [label="entropy = 0.0\nsamples = 7\nvalue = [0, 0, 0, 7, 0, 0]\nclass = 6"] ;
163 -> 164 ;
165 [label="total sulfur dioxide <= 16.0\nentropy = 1.0\nsamples = 2\nvalue = [0, 0, 1, 1, 0, 0]\nclass = 5"] ;
163 -> 165 ;
166 [label="entropy = 0.0\nsamples = 1\nvalue = [0, 0, 0, 1, 0, 0]\nclass = 6"] ;
165 -> 166 ;
167 [label="entropy = 0.0\nsamples = 1\nvalue = [0, 0, 1, 0, 0, 0]\nclass = 5"] ;
165 -> 167 ;
168 [label="density <= 0.997\nentropy = 0.61\nsamples = 20\nvalue = [0, 0, 17, 3, 0, 0]\nclass = 5"] ;
160 -> 168 ;
169 [label="sulphates <= 0.595\nentropy = 0.954\nsamples = 8\nvalue = [0, 0, 5, 3, 0, 0]\nclass = 5"] ;
168 -> 169 ;
170 [label="entropy = 0.0\nsamples = 2\nvalue = [0, 0, 0, 2, 0, 0]\nclass = 6"] ;
169 -> 170 ;
171 [label="volatile acidity <= 0.475\nentropy = 0.65\nsamples = 6\nvalue = [0, 0, 5, 1, 0, 0]\nclass = 5"] ;
169 -> 171 ;
172 [label="entropy = 0.0\nsamples = 1\nvalue = [0, 0, 0, 1, 0, 0]\nclass = 6"] ;
171 -> 172 ;
173 [label="entropy = 0.0\nsamples = 5\nvalue = [0, 0, 5, 0, 0, 0]\nclass = 5"] ;
171 -> 173 ;
174 [label="entropy = 0.0\nsamples = 12\nvalue = [0, 0, 12, 0, 0, 0]\nclass = 5"] ;
168 -> 174 ;
175 [label="chlorides <= 0.075\nentropy = 0.845\nsamples = 22\nvalue = [0, 0, 6, 16, 0, 0]\nclass = 6"] ;
159 -> 175 ;
176 [label="entropy = 0.0\nsamples = 9\nvalue = [0, 0, 0, 9, 0, 0]\nclass = 6"] ;
175 -> 176 ;
177 [label="residual sugar <= 2.25\nentropy = 0.996\nsamples = 13\nvalue = [0, 0, 6, 7, 0, 0]\nclass = 6"] ;
175 -> 177 ;
178 [label="citric acid <= 0.27\nentropy = 0.65\nsamples = 6\nvalue = [0, 0, 5, 1, 0, 0]\nclass = 5"] ;
177 -> 178 ;
179 [label="entropy = 0.0\nsamples = 5\nvalue = [0, 0, 5, 0, 0, 0]\nclass = 5"] ;
178 -> 179 ;
180 [label="entropy = 0.0\nsamples = 1\nvalue = [0, 0, 0, 1, 0, 0]\nclass = 6"] ;
178 -> 180 ;
181 [label="alcohol <= 9.35\nentropy = 0.592\nsamples = 7\nvalue = [0, 0, 1, 6, 0, 0]\nclass = 6"] ;
177 -> 181 ;
182 [label="entropy = 0.0\nsamples = 1\nvalue = [0, 0, 1, 0, 0, 0]\nclass = 5"] ;
181 -> 182 ;
183 [label="entropy = 0.0\nsamples = 6\nvalue = [0, 0, 0, 6, 0, 0]\nclass = 6"] ;
181 -> 183 ;
184 [label="sulphates <= 0.61\nentropy = 1.299\nsamples = 8\nvalue = [0, 0, 5, 2, 1, 0]\nclass = 5"] ;
156 -> 184 ;
185 [label="citric acid <= 0.41\nentropy = 1.0\nsamples = 2\nvalue = [0, 0, 0, 1, 1, 0]\nclass = 6"] ;
184 -> 185 ;
186 [label="entropy = 0.0\nsamples = 1\nvalue = [0, 0, 0, 0, 1, 0]\nclass = 7"] ;
185 -> 186 ;
187 [label="entropy = 0.0\nsamples = 1\nvalue = [0, 0, 0, 1, 0, 0]\nclass = 6"] ;
185 -> 187 ;
188 [label="chlorides <= 0.082\nentropy = 0.65\nsamples = 6\nvalue = [0, 0, 5, 1, 0, 0]\nclass = 5"] ;
184 -> 188 ;
189 [label="entropy = 0.0\nsamples = 5\nvalue = [0, 0, 5, 0, 0, 0]\nclass = 5"] ;
188 -> 189 ;
190 [label="entropy = 0.0\nsamples = 1\nvalue = [0, 0, 0, 1, 0, 0]\nclass = 6"] ;
188 -> 190 ;
191 [label="pH <= 3.48\nentropy = 0.65\nsamples = 24\nvalue = [0, 0, 20, 4, 0, 0]\nclass = 5"] ;
147 -> 191 ;
192 [label="sulphates <= 0.685\nentropy = 0.439\nsamples = 22\nvalue = [0, 0, 20, 2, 0, 0]\nclass = 5"] ;
191 -> 192 ;
193 [label="entropy = 0.0\nsamples = 14\nvalue = [0, 0, 14, 0, 0, 0]\nclass = 5"] ;
192 -> 193 ;
194 [label="density <= 0.998\nentropy = 0.811\nsamples = 8\nvalue = [0, 0, 6, 2, 0, 0]\nclass = 5"] ;
192 -> 194 ;
195 [label="entropy = 0.0\nsamples = 5\nvalue = [0, 0, 5, 0, 0, 0]\nclass = 5"] ;
194 -> 195 ;
196 [label="residual sugar <= 3.1\nentropy = 0.918\nsamples = 3\nvalue = [0, 0, 1, 2, 0, 0]\nclass = 6"] ;
194 -> 196 ;
197 [label="entropy = 0.0\nsamples = 2\nvalue = [0, 0, 0, 2, 0, 0]\nclass = 6"] ;
196 -> 197 ;
198 [label="entropy = 0.0\nsamples = 1\nvalue = [0, 0, 1, 0, 0, 0]\nclass = 5"] ;
196 -> 198 ;
199 [label="entropy = 0.0\nsamples = 2\nvalue = [0, 0, 0, 2, 0, 0]\nclass = 6"] ;
191 -> 199 ;
200 [label="alcohol <= 8.7\nentropy = 0.817\nsamples = 12\nvalue = [1, 0, 1, 10, 0, 0]\nclass = 6"] ;
128 -> 200 ;
201 [label="entropy = 0.0\nsamples = 1\nvalue = [1, 0, 0, 0, 0, 0]\nclass = 3"] ;
200 -> 201 ;
202 [label="total sulfur dioxide <= 34.5\nentropy = 0.439\nsamples = 11\nvalue = [0, 0, 1, 10, 0, 0]\nclass = 6"] ;
200 -> 202 ;
203 [label="entropy = 0.0\nsamples = 9\nvalue = [0, 0, 0, 9, 0, 0]\nclass = 6"] ;
202 -> 203 ;
204 [label="chlorides <= 0.289\nentropy = 1.0\nsamples = 2\nvalue = [0, 0, 1, 1, 0, 0]\nclass = 5"] ;
202 -> 204 ;
205 [label="entropy = 0.0\nsamples = 1\nvalue = [0, 0, 0, 1, 0, 0]\nclass = 6"] ;
204 -> 205 ;
206 [label="entropy = 0.0\nsamples = 1\nvalue = [0, 0, 1, 0, 0, 0]\nclass = 5"] ;
204 -> 206 ;
207 [label="fixed acidity <= 8.8\nentropy = 1.242\nsamples = 15\nvalue = [0, 2, 10, 3, 0, 0]\nclass = 5"] ;
127 -> 207 ;
208 [label="citric acid <= 0.15\nentropy = 0.469\nsamples = 10\nvalue = [0, 1, 9, 0, 0, 0]\nclass = 5"] ;
207 -> 208 ;
209 [label="entropy = 0.0\nsamples = 1\nvalue = [0, 1, 0, 0, 0, 0]\nclass = 4"] ;
208 -> 209 ;
210 [label="entropy = 0.0\nsamples = 9\nvalue = [0, 0, 9, 0, 0, 0]\nclass = 5"] ;
208 -> 210 ;
211 [label="free sulfur dioxide <= 7.5\nentropy = 1.371\nsamples = 5\nvalue = [0, 1, 1, 3, 0, 0]\nclass = 6"] ;
207 -> 211 ;
212 [label="entropy = 0.0\nsamples = 1\nvalue = [0, 0, 1, 0, 0, 0]\nclass = 5"] ;
211 -> 212 ;
213 [label="residual sugar <= 2.9\nentropy = 0.811\nsamples = 4\nvalue = [0, 1, 0, 3, 0, 0]\nclass = 6"] ;
211 -> 213 ;
214 [label="entropy = 0.0\nsamples = 3\nvalue = [0, 0, 0, 3, 0, 0]\nclass = 6"] ;
213 -> 214 ;
215 [label="entropy = 0.0\nsamples = 1\nvalue = [0, 1, 0, 0, 0, 0]\nclass = 4"] ;
213 -> 215 ;
216 [label="pH <= 3.275\nentropy = 0.918\nsamples = 3\nvalue = [0, 2, 1, 0, 0, 0]\nclass = 4"] ;
126 -> 216 ;
217 [label="entropy = 0.0\nsamples = 1\nvalue = [0, 0, 1, 0, 0, 0]\nclass = 5"] ;
216 -> 217 ;
218 [label="entropy = 0.0\nsamples = 2\nvalue = [0, 2, 0, 0, 0, 0]\nclass = 4"] ;
216 -> 218 ;
219 [label="density <= 1.0\nentropy = 1.449\nsamples = 7\nvalue = [0, 0, 0, 3, 3, 1]\nclass = 6"] ;
125 -> 219 ;
220 [label="citric acid <= 0.63\nentropy = 0.811\nsamples = 4\nvalue = [0, 0, 0, 0, 3, 1]\nclass = 7"] ;
219 -> 220 ;
221 [label="entropy = 0.0\nsamples = 3\nvalue = [0, 0, 0, 0, 3, 0]\nclass = 7"] ;
220 -> 221 ;
222 [label="entropy = 0.0\nsamples = 1\nvalue = [0, 0, 0, 0, 0, 1]\nclass = 8"] ;
220 -> 222 ;
223 [label="entropy = 0.0\nsamples = 3\nvalue = [0, 0, 0, 3, 0, 0]\nclass = 6"] ;
219 -> 223 ;
224 [label="residual sugar <= 1.55\nentropy = 1.591\nsamples = 179\nvalue = [2, 2, 52, 96, 26, 1]\nclass = 6"] ;
124 -> 224 ;
225 [label="free sulfur dioxide <= 13.5\nentropy = 1.727\nsamples = 14\nvalue = [1, 2, 0, 5, 6, 0]\nclass = 7"] ;
224 -> 225 ;
226 [label="volatile acidity <= 0.575\nentropy = 1.299\nsamples = 8\nvalue = [0, 2, 0, 5, 1, 0]\nclass = 6"] ;
225 -> 226 ;
227 [label="citric acid <= 0.465\nentropy = 0.65\nsamples = 6\nvalue = [0, 0, 0, 5, 1, 0]\nclass = 6"] ;
226 -> 227 ;
228 [label="entropy = 0.0\nsamples = 5\nvalue = [0, 0, 0, 5, 0, 0]\nclass = 6"] ;
227 -> 228 ;
229 [label="entropy = 0.0\nsamples = 1\nvalue = [0, 0, 0, 0, 1, 0]\nclass = 7"] ;
227 -> 229 ;
230 [label="entropy = 0.0\nsamples = 2\nvalue = [0, 2, 0, 0, 0, 0]\nclass = 4"] ;
226 -> 230 ;
231 [label="total sulfur dioxide <= 47.5\nentropy = 0.65\nsamples = 6\nvalue = [1, 0, 0, 0, 5, 0]\nclass = 7"] ;
225 -> 231 ;
232 [label="entropy = 0.0\nsamples = 5\nvalue = [0, 0, 0, 0, 5, 0]\nclass = 7"] ;
231 -> 232 ;
233 [label="entropy = 0.0\nsamples = 1\nvalue = [1, 0, 0, 0, 0, 0]\nclass = 3"] ;
231 -> 233 ;
234 [label="total sulfur dioxide <= 13.5\nentropy = 1.457\nsamples = 165\nvalue = [1, 0, 52, 91, 20, 1]\nclass = 6"] ;
224 -> 234 ;
235 [label="density <= 0.996\nentropy = 1.664\nsamples = 7\nvalue = [1, 0, 1, 0, 4, 1]\nclass = 7"] ;
234 -> 235 ;
236 [label="alcohol <= 9.975\nentropy = 1.585\nsamples = 3\nvalue = [1, 0, 1, 0, 0, 1]\nclass = 3"] ;
235 -> 236 ;
237 [label="entropy = 0.0\nsamples = 1\nvalue = [1, 0, 0, 0, 0, 0]\nclass = 3"] ;
236 -> 237 ;
238 [label="chlorides <= 0.07\nentropy = 1.0\nsamples = 2\nvalue = [0, 0, 1, 0, 0, 1]\nclass = 5"] ;
236 -> 238 ;
239 [label="entropy = 0.0\nsamples = 1\nvalue = [0, 0, 0, 0, 0, 1]\nclass = 8"] ;
238 -> 239 ;
240 [label="entropy = 0.0\nsamples = 1\nvalue = [0, 0, 1, 0, 0, 0]\nclass = 5"] ;
238 -> 240 ;
241 [label="entropy = 0.0\nsamples = 4\nvalue = [0, 0, 0, 0, 4, 0]\nclass = 7"] ;
235 -> 241 ;
242 [label="volatile acidity <= 0.635\nentropy = 1.32\nsamples = 158\nvalue = [0, 0, 51, 91, 16, 0]\nclass = 6"] ;
234 -> 242 ;
243 [label="sulphates <= 0.615\nentropy = 1.333\nsamples = 121\nvalue = [0, 0, 32, 73, 16, 0]\nclass = 6"] ;
242 -> 243 ;
244 [label="alcohol <= 10.45\nentropy = 0.983\nsamples = 33\nvalue = [0, 0, 14, 19, 0, 0]\nclass = 6"] ;
243 -> 244 ;
245 [label="free sulfur dioxide <= 17.5\nentropy = 0.964\nsamples = 18\nvalue = [0, 0, 11, 7, 0, 0]\nclass = 5"] ;
244 -> 245 ;
246 [label="density <= 0.996\nentropy = 1.0\nsamples = 14\nvalue = [0, 0, 7, 7, 0, 0]\nclass = 5"] ;
245 -> 246 ;
247 [label="entropy = 0.0\nsamples = 4\nvalue = [0, 0, 0, 4, 0, 0]\nclass = 6"] ;
246 -> 247 ;
248 [label="free sulfur dioxide <= 11.5\nentropy = 0.881\nsamples = 10\nvalue = [0, 0, 7, 3, 0, 0]\nclass = 5"] ;
246 -> 248 ;
249 [label="alcohol <= 10.15\nentropy = 1.0\nsamples = 6\nvalue = [0, 0, 3, 3, 0, 0]\nclass = 5"] ;
248 -> 249 ;
250 [label="entropy = 0.0\nsamples = 2\nvalue = [0, 0, 0, 2, 0, 0]\nclass = 6"] ;
249 -> 250 ;
251 [label="total sulfur dioxide <= 36.5\nentropy = 0.811\nsamples = 4\nvalue = [0, 0, 3, 1, 0, 0]\nclass = 5"] ;
249 -> 251 ;
252 [label="entropy = 0.0\nsamples = 3\nvalue = [0, 0, 3, 0, 0, 0]\nclass = 5"] ;
251 -> 252 ;
253 [label="entropy = 0.0\nsamples = 1\nvalue = [0, 0, 0, 1, 0, 0]\nclass = 6"] ;
251 -> 253 ;
254 [label="entropy = 0.0\nsamples = 4\nvalue = [0, 0, 4, 0, 0, 0]\nclass = 5"] ;
248 -> 254 ;
255 [label="entropy = 0.0\nsamples = 4\nvalue = [0, 0, 4, 0, 0, 0]\nclass = 5"] ;
245 -> 255 ;
256 [label="chlorides <= 0.09\nentropy = 0.722\nsamples = 15\nvalue = [0, 0, 3, 12, 0, 0]\nclass = 6"] ;
244 -> 256 ;
257 [label="free sulfur dioxide <= 7.5\nentropy = 0.391\nsamples = 13\nvalue = [0, 0, 1, 12, 0, 0]\nclass = 6"] ;
256 -> 257 ;
258 [label="entropy = 0.0\nsamples = 1\nvalue = [0, 0, 1, 0, 0, 0]\nclass = 5"] ;
257 -> 258 ;
259 [label="entropy = 0.0\nsamples = 12\nvalue = [0, 0, 0, 12, 0, 0]\nclass = 6"] ;
257 -> 259 ;
260 [label="entropy = 0.0\nsamples = 2\nvalue = [0, 0, 2, 0, 0, 0]\nclass = 5"] ;
256 -> 260 ;
261 [label="alcohol <= 10.05\nentropy = 1.348\nsamples = 88\nvalue = [0, 0, 18, 54, 16, 0]\nclass = 6"] ;
243 -> 261 ;
262 [label="free sulfur dioxide <= 11.5\nentropy = 0.863\nsamples = 21\nvalue = [0, 0, 0, 15, 6, 0]\nclass = 6"] ;
261 -> 262 ;
263 [label="entropy = 0.0\nsamples = 3\nvalue = [0, 0, 0, 0, 3, 0]\nclass = 7"] ;
262 -> 263 ;
264 [label="sulphates <= 0.655\nentropy = 0.65\nsamples = 18\nvalue = [0, 0, 0, 15, 3, 0]\nclass = 6"] ;
262 -> 264 ;
265 [label="citric acid <= 0.175\nentropy = 0.811\nsamples = 4\nvalue = [0, 0, 0, 1, 3, 0]\nclass = 7"] ;
264 -> 265 ;
266 [label="entropy = 0.0\nsamples = 1\nvalue = [0, 0, 0, 1, 0, 0]\nclass = 6"] ;
265 -> 266 ;
267 [label="entropy = 0.0\nsamples = 3\nvalue = [0, 0, 0, 0, 3, 0]\nclass = 7"] ;
265 -> 267 ;
268 [label="entropy = 0.0\nsamples = 14\nvalue = [0, 0, 0, 14, 0, 0]\nclass = 6"] ;
264 -> 268 ;
269 [label="citric acid <= 0.515\nentropy = 1.373\nsamples = 67\nvalue = [0, 0, 18, 39, 10, 0]\nclass = 6"] ;
261 -> 269 ;
270 [label="chlorides <= 0.08\nentropy = 1.225\nsamples = 53\nvalue = [0, 0, 9, 36, 8, 0]\nclass = 6"] ;
269 -> 270 ;
271 [label="sulphates <= 0.95\nentropy = 0.744\nsamples = 26\nvalue = [0, 0, 1, 22, 3, 0]\nclass = 6"] ;
270 -> 271 ;
272 [label="pH <= 3.415\nentropy = 0.529\nsamples = 25\nvalue = [0, 0, 0, 22, 3, 0]\nclass = 6"] ;
271 -> 272 ;
273 [label="entropy = 0.0\nsamples = 14\nvalue = [0, 0, 0, 14, 0, 0]\nclass = 6"] ;
272 -> 273 ;
274 [label="pH <= 3.455\nentropy = 0.845\nsamples = 11\nvalue = [0, 0, 0, 8, 3, 0]\nclass = 6"] ;
272 -> 274 ;
275 [label="citric acid <= 0.41\nentropy = 0.811\nsamples = 4\nvalue = [0, 0, 0, 1, 3, 0]\nclass = 7"] ;
274 -> 275 ;
276 [label="entropy = 0.0\nsamples = 3\nvalue = [0, 0, 0, 0, 3, 0]\nclass = 7"] ;
275 -> 276 ;
277 [label="entropy = 0.0\nsamples = 1\nvalue = [0, 0, 0, 1, 0, 0]\nclass = 6"] ;
275 -> 277 ;
278 [label="entropy = 0.0\nsamples = 7\nvalue = [0, 0, 0, 7, 0, 0]\nclass = 6"] ;
274 -> 278 ;
279 [label="entropy = 0.0\nsamples = 1\nvalue = [0, 0, 1, 0, 0, 0]\nclass = 5"] ;
271 -> 279 ;
280 [label="residual sugar <= 2.1\nentropy = 1.462\nsamples = 27\nvalue = [0, 0, 8, 14, 5, 0]\nclass = 6"] ;
270 -> 280 ;
281 [label="alcohol <= 10.55\nentropy = 0.592\nsamples = 7\nvalue = [0, 0, 6, 1, 0, 0]\nclass = 5"] ;
280 -> 281 ;
282 [label="entropy = 0.0\nsamples = 6\nvalue = [0, 0, 6, 0, 0, 0]\nclass = 5"] ;
281 -> 282 ;
283 [label="entropy = 0.0\nsamples = 1\nvalue = [0, 0, 0, 1, 0, 0]\nclass = 6"] ;
281 -> 283 ;
284 [label="alcohol <= 10.4\nentropy = 1.236\nsamples = 20\nvalue = [0, 0, 2, 13, 5, 0]\nclass = 6"] ;
280 -> 284 ;
285 [label="sulphates <= 0.625\nentropy = 0.991\nsamples = 13\nvalue = [0, 0, 2, 10, 1, 0]\nclass = 6"] ;
284 -> 285 ;
286 [label="entropy = 0.0\nsamples = 1\nvalue = [0, 0, 0, 0, 1, 0]\nclass = 7"] ;
285 -> 286 ;
287 [label="density <= 1.0\nentropy = 0.65\nsamples = 12\nvalue = [0, 0, 2, 10, 0, 0]\nclass = 6"] ;
285 -> 287 ;
288 [label="chlorides <= 0.082\nentropy = 0.439\nsamples = 11\nvalue = [0, 0, 1, 10, 0, 0]\nclass = 6"] ;
287 -> 288 ;
289 [label="total sulfur dioxide <= 39.0\nentropy = 1.0\nsamples = 2\nvalue = [0, 0, 1, 1, 0, 0]\nclass = 5"] ;
288 -> 289 ;
290 [label="entropy = 0.0\nsamples = 1\nvalue = [0, 0, 0, 1, 0, 0]\nclass = 6"] ;
289 -> 290 ;
291 [label="entropy = 0.0\nsamples = 1\nvalue = [0, 0, 1, 0, 0, 0]\nclass = 5"] ;
289 -> 291 ;
292 [label="entropy = 0.0\nsamples = 9\nvalue = [0, 0, 0, 9, 0, 0]\nclass = 6"] ;
288 -> 292 ;
293 [label="entropy = 0.0\nsamples = 1\nvalue = [0, 0, 1, 0, 0, 0]\nclass = 5"] ;
287 -> 293 ;
294 [label="total sulfur dioxide <= 39.5\nentropy = 0.985\nsamples = 7\nvalue = [0, 0, 0, 3, 4, 0]\nclass = 7"] ;
284 -> 294 ;
295 [label="sulphates <= 0.715\nentropy = 0.811\nsamples = 4\nvalue = [0, 0, 0, 3, 1, 0]\nclass = 6"] ;
294 -> 295 ;
296 [label="entropy = 0.0\nsamples = 1\nvalue = [0, 0, 0, 0, 1, 0]\nclass = 7"] ;
295 -> 296 ;
297 [label="entropy = 0.0\nsamples = 3\nvalue = [0, 0, 0, 3, 0, 0]\nclass = 6"] ;
295 -> 297 ;
298 [label="entropy = 0.0\nsamples = 3\nvalue = [0, 0, 0, 0, 3, 0]\nclass = 7"] ;
294 -> 298 ;
299 [label="fixed acidity <= 10.95\nentropy = 1.287\nsamples = 14\nvalue = [0, 0, 9, 3, 2, 0]\nclass = 5"] ;
269 -> 299 ;
300 [label="entropy = 0.0\nsamples = 7\nvalue = [0, 0, 7, 0, 0, 0]\nclass = 5"] ;
299 -> 300 ;
301 [label="pH <= 3.07\nentropy = 1.557\nsamples = 7\nvalue = [0, 0, 2, 3, 2, 0]\nclass = 6"] ;
299 -> 301 ;
302 [label="entropy = 0.0\nsamples = 2\nvalue = [0, 0, 2, 0, 0, 0]\nclass = 5"] ;
301 -> 302 ;
303 [label="sulphates <= 0.835\nentropy = 0.971\nsamples = 5\nvalue = [0, 0, 0, 3, 2, 0]\nclass = 6"] ;
301 -> 303 ;
304 [label="entropy = 0.0\nsamples = 2\nvalue = [0, 0, 0, 2, 0, 0]\nclass = 6"] ;
303 -> 304 ;
305 [label="residual sugar <= 2.05\nentropy = 0.918\nsamples = 3\nvalue = [0, 0, 0, 1, 2, 0]\nclass = 7"] ;
303 -> 305 ;
306 [label="entropy = 0.0\nsamples = 1\nvalue = [0, 0, 0, 1, 0, 0]\nclass = 6"] ;
305 -> 306 ;
307 [label="entropy = 0.0\nsamples = 2\nvalue = [0, 0, 0, 0, 2, 0]\nclass = 7"] ;
305 -> 307 ;
308 [label="alcohol <= 10.35\nentropy = 0.999\nsamples = 37\nvalue = [0, 0, 19, 18, 0, 0]\nclass = 5"] ;
242 -> 308 ;
309 [label="citric acid <= 0.2\nentropy = 0.845\nsamples = 22\nvalue = [0, 0, 16, 6, 0, 0]\nclass = 5"] ;
308 -> 309 ;
310 [label="free sulfur dioxide <= 12.5\nentropy = 0.985\nsamples = 14\nvalue = [0, 0, 8, 6, 0, 0]\nclass = 5"] ;
309 -> 310 ;
311 [label="residual sugar <= 3.15\nentropy = 0.65\nsamples = 6\nvalue = [0, 0, 1, 5, 0, 0]\nclass = 6"] ;
310 -> 311 ;
312 [label="entropy = 0.0\nsamples = 5\nvalue = [0, 0, 0, 5, 0, 0]\nclass = 6"] ;
311 -> 312 ;
313 [label="entropy = 0.0\nsamples = 1\nvalue = [0, 0, 1, 0, 0, 0]\nclass = 5"] ;
311 -> 313 ;
314 [label="fixed acidity <= 7.45\nentropy = 0.544\nsamples = 8\nvalue = [0, 0, 7, 1, 0, 0]\nclass = 5"] ;
310 -> 314 ;
315 [label="entropy = 0.0\nsamples = 7\nvalue = [0, 0, 7, 0, 0, 0]\nclass = 5"] ;
314 -> 315 ;
316 [label="entropy = 0.0\nsamples = 1\nvalue = [0, 0, 0, 1, 0, 0]\nclass = 6"] ;
314 -> 316 ;
317 [label="entropy = 0.0\nsamples = 8\nvalue = [0, 0, 8, 0, 0, 0]\nclass = 5"] ;
309 -> 317 ;
318 [label="alcohol <= 10.45\nentropy = 0.722\nsamples = 15\nvalue = [0, 0, 3, 12, 0, 0]\nclass = 6"] ;
308 -> 318 ;
319 [label="entropy = 0.0\nsamples = 10\nvalue = [0, 0, 0, 10, 0, 0]\nclass = 6"] ;
318 -> 319 ;
320 [label="fixed acidity <= 7.1\nentropy = 0.971\nsamples = 5\nvalue = [0, 0, 3, 2, 0, 0]\nclass = 5"] ;
318 -> 320 ;
321 [label="entropy = 0.0\nsamples = 2\nvalue = [0, 0, 2, 0, 0, 0]\nclass = 5"] ;
320 -> 321 ;
322 [label="density <= 0.997\nentropy = 0.918\nsamples = 3\nvalue = [0, 0, 1, 2, 0, 0]\nclass = 6"] ;
320 -> 322 ;
323 [label="entropy = 0.0\nsamples = 2\nvalue = [0, 0, 0, 2, 0, 0]\nclass = 6"] ;
322 -> 323 ;
324 [label="entropy = 0.0\nsamples = 1\nvalue = [0, 0, 1, 0, 0, 0]\nclass = 5"] ;
322 -> 324 ;
325 [label="free sulfur dioxide <= 26.5\nentropy = 0.746\nsamples = 67\nvalue = [0, 1, 57, 8, 1, 0]\nclass = 5"] ;
123 -> 325 ;
326 [label="sulphates <= 0.585\nentropy = 0.742\nsamples = 38\nvalue = [0, 0, 30, 8, 0, 0]\nclass = 5"] ;
325 -> 326 ;
327 [label="entropy = 0.0\nsamples = 3\nvalue = [0, 0, 0, 3, 0, 0]\nclass = 6"] ;
326 -> 327 ;
328 [label="pH <= 3.315\nentropy = 0.592\nsamples = 35\nvalue = [0, 0, 30, 5, 0, 0]\nclass = 5"] ;
326 -> 328 ;
329 [label="sulphates <= 1.56\nentropy = 0.258\nsamples = 23\nvalue = [0, 0, 22, 1, 0, 0]\nclass = 5"] ;
328 -> 329 ;
330 [label="entropy = 0.0\nsamples = 21\nvalue = [0, 0, 21, 0, 0, 0]\nclass = 5"] ;
329 -> 330 ;
331 [label="alcohol <= 9.85\nentropy = 1.0\nsamples = 2\nvalue = [0, 0, 1, 1, 0, 0]\nclass = 5"] ;
329 -> 331 ;
332 [label="entropy = 0.0\nsamples = 1\nvalue = [0, 0, 1, 0, 0, 0]\nclass = 5"] ;
331 -> 332 ;
333 [label="entropy = 0.0\nsamples = 1\nvalue = [0, 0, 0, 1, 0, 0]\nclass = 6"] ;
331 -> 333 ;
334 [label="chlorides <= 0.078\nentropy = 0.918\nsamples = 12\nvalue = [0, 0, 8, 4, 0, 0]\nclass = 5"] ;
328 -> 334 ;
335 [label="entropy = 0.0\nsamples = 6\nvalue = [0, 0, 6, 0, 0, 0]\nclass = 5"] ;
334 -> 335 ;
336 [label="free sulfur dioxide <= 14.5\nentropy = 0.918\nsamples = 6\nvalue = [0, 0, 2, 4, 0, 0]\nclass = 6"] ;
334 -> 336 ;
337 [label="entropy = 0.0\nsamples = 2\nvalue = [0, 0, 2, 0, 0, 0]\nclass = 5"] ;
336 -> 337 ;
338 [label="entropy = 0.0\nsamples = 4\nvalue = [0, 0, 0, 4, 0, 0]\nclass = 6"] ;
336 -> 338 ;
339 [label="residual sugar <= 1.85\nentropy = 0.431\nsamples = 29\nvalue = [0, 1, 27, 0, 1, 0]\nclass = 5"] ;
325 -> 339 ;
340 [label="chlorides <= 0.104\nentropy = 1.5\nsamples = 4\nvalue = [0, 1, 2, 0, 1, 0]\nclass = 5"] ;
339 -> 340 ;
341 [label="fixed acidity <= 8.4\nentropy = 1.0\nsamples = 2\nvalue = [0, 1, 0, 0, 1, 0]\nclass = 4"] ;
340 -> 341 ;
342 [label="entropy = 0.0\nsamples = 1\nvalue = [0, 1, 0, 0, 0, 0]\nclass = 4"] ;
341 -> 342 ;
343 [label="entropy = 0.0\nsamples = 1\nvalue = [0, 0, 0, 0, 1, 0]\nclass = 7"] ;
341 -> 343 ;
344 [label="entropy = 0.0\nsamples = 2\nvalue = [0, 0, 2, 0, 0, 0]\nclass = 5"] ;
340 -> 344 ;
345 [label="entropy = 0.0\nsamples = 25\nvalue = [0, 0, 25, 0, 0, 0]\nclass = 5"] ;
339 -> 345 ;
346 [label="sulphates <= 0.585\nentropy = 1.776\nsamples = 404\nvalue = [1, 11, 68, 197, 114, 13]\nclass = 6"] ;
0 -> 346 [labeldistance=2.5, labelangle=-45, headlabel="False"] ;
347 [label="volatile acidity <= 0.365\nentropy = 1.783\nsamples = 106\nvalue = [1, 8, 37, 46, 14, 0]\nclass = 6"] ;
346 -> 347 ;
348 [label="residual sugar <= 4.1\nentropy = 1.142\nsamples = 26\nvalue = [0, 1, 0, 16, 9, 0]\nclass = 6"] ;
347 -> 348 ;
349 [label="total sulfur dioxide <= 10.5\nentropy = 0.887\nsamples = 23\nvalue = [0, 0, 0, 16, 7, 0]\nclass = 6"] ;
348 -> 349 ;
350 [label="residual sugar <= 2.1\nentropy = 0.863\nsamples = 7\nvalue = [0, 0, 0, 2, 5, 0]\nclass = 7"] ;
349 -> 350 ;
351 [label="entropy = 0.0\nsamples = 5\nvalue = [0, 0, 0, 0, 5, 0]\nclass = 7"] ;
350 -> 351 ;
352 [label="entropy = 0.0\nsamples = 2\nvalue = [0, 0, 0, 2, 0, 0]\nclass = 6"] ;
350 -> 352 ;
353 [label="sulphates <= 0.415\nentropy = 0.544\nsamples = 16\nvalue = [0, 0, 0, 14, 2, 0]\nclass = 6"] ;
349 -> 353 ;
354 [label="entropy = 0.0\nsamples = 2\nvalue = [0, 0, 0, 0, 2, 0]\nclass = 7"] ;
353 -> 354 ;
355 [label="entropy = 0.0\nsamples = 14\nvalue = [0, 0, 0, 14, 0, 0]\nclass = 6"] ;
353 -> 355 ;
356 [label="alcohol <= 11.9\nentropy = 0.918\nsamples = 3\nvalue = [0, 1, 0, 0, 2, 0]\nclass = 7"] ;
348 -> 356 ;
357 [label="entropy = 0.0\nsamples = 1\nvalue = [0, 1, 0, 0, 0, 0]\nclass = 4"] ;
356 -> 357 ;
358 [label="entropy = 0.0\nsamples = 2\nvalue = [0, 0, 0, 0, 2, 0]\nclass = 7"] ;
356 -> 358 ;
359 [label="alcohol <= 11.15\nentropy = 1.682\nsamples = 80\nvalue = [1, 7, 37, 30, 5, 0]\nclass = 5"] ;
347 -> 359 ;
360 [label="chlorides <= 0.115\nentropy = 1.106\nsamples = 25\nvalue = [1, 1, 20, 2, 1, 0]\nclass = 5"] ;
359 -> 360 ;
361 [label="density <= 0.995\nentropy = 0.569\nsamples = 20\nvalue = [0, 1, 18, 0, 1, 0]\nclass = 5"] ;
360 -> 361 ;
362 [label="free sulfur dioxide <= 11.5\nentropy = 1.371\nsamples = 5\nvalue = [0, 1, 3, 0, 1, 0]\nclass = 5"] ;
361 -> 362 ;
363 [label="pH <= 3.375\nentropy = 1.0\nsamples = 2\nvalue = [0, 1, 0, 0, 1, 0]\nclass = 4"] ;
362 -> 363 ;
364 [label="entropy = 0.0\nsamples = 1\nvalue = [0, 0, 0, 0, 1, 0]\nclass = 7"] ;
363 -> 364 ;
365 [label="entropy = 0.0\nsamples = 1\nvalue = [0, 1, 0, 0, 0, 0]\nclass = 4"] ;
363 -> 365 ;
366 [label="entropy = 0.0\nsamples = 3\nvalue = [0, 0, 3, 0, 0, 0]\nclass = 5"] ;
362 -> 366 ;
367 [label="entropy = 0.0\nsamples = 15\nvalue = [0, 0, 15, 0, 0, 0]\nclass = 5"] ;
361 -> 367 ;
368 [label="total sulfur dioxide <= 14.5\nentropy = 1.522\nsamples = 5\nvalue = [1, 0, 2, 2, 0, 0]\nclass = 5"] ;
360 -> 368 ;
369 [label="density <= 0.995\nentropy = 0.918\nsamples = 3\nvalue = [1, 0, 2, 0, 0, 0]\nclass = 5"] ;
368 -> 369 ;
370 [label="entropy = 0.0\nsamples = 1\nvalue = [1, 0, 0, 0, 0, 0]\nclass = 3"] ;
369 -> 370 ;
371 [label="entropy = 0.0\nsamples = 2\nvalue = [0, 0, 2, 0, 0, 0]\nclass = 5"] ;
369 -> 371 ;
372 [label="entropy = 0.0\nsamples = 2\nvalue = [0, 0, 0, 2, 0, 0]\nclass = 6"] ;
368 -> 372 ;
373 [label="pH <= 3.485\nentropy = 1.643\nsamples = 55\nvalue = [0, 6, 17, 28, 4, 0]\nclass = 6"] ;
359 -> 373 ;
374 [label="free sulfur dioxide <= 9.5\nentropy = 1.358\nsamples = 37\nvalue = [0, 2, 7, 25, 3, 0]\nclass = 6"] ;
373 -> 374 ;
375 [label="free sulfur dioxide <= 8.5\nentropy = 1.62\nsamples = 22\nvalue = [0, 1, 7, 11, 3, 0]\nclass = 6"] ;
374 -> 375 ;
376 [label="chlorides <= 0.095\nentropy = 1.437\nsamples = 20\nvalue = [0, 1, 7, 11, 1, 0]\nclass = 6"] ;
375 -> 376 ;
377 [label="alcohol <= 11.75\nentropy = 1.0\nsamples = 14\nvalue = [0, 0, 7, 7, 0, 0]\nclass = 5"] ;
376 -> 377 ;
378 [label="entropy = 0.0\nsamples = 5\nvalue = [0, 0, 5, 0, 0, 0]\nclass = 5"] ;
377 -> 378 ;
379 [label="alcohol <= 12.55\nentropy = 0.764\nsamples = 9\nvalue = [0, 0, 2, 7, 0, 0]\nclass = 6"] ;
377 -> 379 ;
380 [label="entropy = 0.0\nsamples = 6\nvalue = [0, 0, 0, 6, 0, 0]\nclass = 6"] ;
379 -> 380 ;
381 [label="fixed acidity <= 6.55\nentropy = 0.918\nsamples = 3\nvalue = [0, 0, 2, 1, 0, 0]\nclass = 5"] ;
379 -> 381 ;
382 [label="entropy = 0.0\nsamples = 1\nvalue = [0, 0, 0, 1, 0, 0]\nclass = 6"] ;
381 -> 382 ;
383 [label="entropy = 0.0\nsamples = 2\nvalue = [0, 0, 2, 0, 0, 0]\nclass = 5"] ;
381 -> 383 ;
384 [label="chlorides <= 0.104\nentropy = 1.252\nsamples = 6\nvalue = [0, 1, 0, 4, 1, 0]\nclass = 6"] ;
376 -> 384 ;
385 [label="fixed acidity <= 7.95\nentropy = 1.0\nsamples = 2\nvalue = [0, 1, 0, 0, 1, 0]\nclass = 4"] ;
384 -> 385 ;
386 [label="entropy = 0.0\nsamples = 1\nvalue = [0, 1, 0, 0, 0, 0]\nclass = 4"] ;
385 -> 386 ;
387 [label="entropy = 0.0\nsamples = 1\nvalue = [0, 0, 0, 0, 1, 0]\nclass = 7"] ;
385 -> 387 ;
388 [label="entropy = 0.0\nsamples = 4\nvalue = [0, 0, 0, 4, 0, 0]\nclass = 6"] ;
384 -> 388 ;
389 [label="entropy = 0.0\nsamples = 2\nvalue = [0, 0, 0, 0, 2, 0]\nclass = 7"] ;
375 -> 389 ;
390 [label="volatile acidity <= 0.645\nentropy = 0.353\nsamples = 15\nvalue = [0, 1, 0, 14, 0, 0]\nclass = 6"] ;
374 -> 390 ;
391 [label="entropy = 0.0\nsamples = 12\nvalue = [0, 0, 0, 12, 0, 0]\nclass = 6"] ;
390 -> 391 ;
392 [label="sulphates <= 0.48\nentropy = 0.918\nsamples = 3\nvalue = [0, 1, 0, 2, 0, 0]\nclass = 6"] ;
390 -> 392 ;
393 [label="entropy = 0.0\nsamples = 2\nvalue = [0, 0, 0, 2, 0, 0]\nclass = 6"] ;
392 -> 393 ;
394 [label="entropy = 0.0\nsamples = 1\nvalue = [0, 1, 0, 0, 0, 0]\nclass = 4"] ;
392 -> 394 ;
395 [label="volatile acidity <= 0.817\nentropy = 1.616\nsamples = 18\nvalue = [0, 4, 10, 3, 1, 0]\nclass = 5"] ;
373 -> 395 ;
396 [label="chlorides <= 0.076\nentropy = 0.991\nsamples = 13\nvalue = [0, 1, 10, 2, 0, 0]\nclass = 5"] ;
395 -> 396 ;
397 [label="fixed acidity <= 5.1\nentropy = 0.439\nsamples = 11\nvalue = [0, 1, 10, 0, 0, 0]\nclass = 5"] ;
396 -> 397 ;
398 [label="entropy = 0.0\nsamples = 1\nvalue = [0, 1, 0, 0, 0, 0]\nclass = 4"] ;
397 -> 398 ;
399 [label="entropy = 0.0\nsamples = 10\nvalue = [0, 0, 10, 0, 0, 0]\nclass = 5"] ;
397 -> 399 ;
400 [label="entropy = 0.0\nsamples = 2\nvalue = [0, 0, 0, 2, 0, 0]\nclass = 6"] ;
396 -> 400 ;
401 [label="chlorides <= 0.06\nentropy = 1.371\nsamples = 5\nvalue = [0, 3, 0, 1, 1, 0]\nclass = 4"] ;
395 -> 401 ;
402 [label="citric acid <= 0.02\nentropy = 1.0\nsamples = 2\nvalue = [0, 0, 0, 1, 1, 0]\nclass = 6"] ;
401 -> 402 ;
403 [label="entropy = 0.0\nsamples = 1\nvalue = [0, 0, 0, 1, 0, 0]\nclass = 6"] ;
402 -> 403 ;
404 [label="entropy = 0.0\nsamples = 1\nvalue = [0, 0, 0, 0, 1, 0]\nclass = 7"] ;
402 -> 404 ;
405 [label="entropy = 0.0\nsamples = 3\nvalue = [0, 3, 0, 0, 0, 0]\nclass = 4"] ;
401 -> 405 ;
406 [label="alcohol <= 11.55\nentropy = 1.629\nsamples = 298\nvalue = [0, 3, 31, 151, 100, 13]\nclass = 6"] ;
346 -> 406 ;
407 [label="volatile acidity <= 0.385\nentropy = 1.548\nsamples = 168\nvalue = [0, 3, 27, 100, 35, 3]\nclass = 6"] ;
406 -> 407 ;
408 [label="pH <= 3.265\nentropy = 1.649\nsamples = 57\nvalue = [0, 0, 7, 24, 23, 3]\nclass = 6"] ;
407 -> 408 ;
409 [label="citric acid <= 0.315\nentropy = 1.21\nsamples = 25\nvalue = [0, 0, 0, 5, 17, 3]\nclass = 7"] ;
408 -> 409 ;
410 [label="entropy = 0.0\nsamples = 2\nvalue = [0, 0, 0, 0, 0, 2]\nclass = 8"] ;
409 -> 410 ;
411 [label="sulphates <= 0.705\nentropy = 0.998\nsamples = 23\nvalue = [0, 0, 0, 5, 17, 1]\nclass = 7"] ;
409 -> 411 ;
412 [label="alcohol <= 11.25\nentropy = 1.459\nsamples = 6\nvalue = [0, 0, 0, 3, 2, 1]\nclass = 6"] ;
411 -> 412 ;
413 [label="chlorides <= 0.071\nentropy = 0.811\nsamples = 4\nvalue = [0, 0, 0, 3, 0, 1]\nclass = 6"] ;
412 -> 413 ;
414 [label="entropy = 0.0\nsamples = 1\nvalue = [0, 0, 0, 0, 0, 1]\nclass = 8"] ;
413 -> 414 ;
415 [label="entropy = 0.0\nsamples = 3\nvalue = [0, 0, 0, 3, 0, 0]\nclass = 6"] ;
413 -> 415 ;
416 [label="entropy = 0.0\nsamples = 2\nvalue = [0, 0, 0, 0, 2, 0]\nclass = 7"] ;
412 -> 416 ;
417 [label="alcohol <= 11.35\nentropy = 0.523\nsamples = 17\nvalue = [0, 0, 0, 2, 15, 0]\nclass = 7"] ;
411 -> 417 ;
418 [label="sulphates <= 1.055\nentropy = 0.337\nsamples = 16\nvalue = [0, 0, 0, 1, 15, 0]\nclass = 7"] ;
417 -> 418 ;
419 [label="entropy = 0.0\nsamples = 15\nvalue = [0, 0, 0, 0, 15, 0]\nclass = 7"] ;
418 -> 419 ;
420 [label="entropy = 0.0\nsamples = 1\nvalue = [0, 0, 0, 1, 0, 0]\nclass = 6"] ;
418 -> 420 ;
421 [label="entropy = 0.0\nsamples = 1\nvalue = [0, 0, 0, 1, 0, 0]\nclass = 6"] ;
417 -> 421 ;
422 [label="total sulfur dioxide <= 61.0\nentropy = 1.379\nsamples = 32\nvalue = [0, 0, 7, 19, 6, 0]\nclass = 6"] ;
408 -> 422 ;
423 [label="fixed acidity <= 7.8\nentropy = 0.974\nsamples = 24\nvalue = [0, 0, 1, 18, 5, 0]\nclass = 6"] ;
422 -> 423 ;
424 [label="fixed acidity <= 7.15\nentropy = 1.0\nsamples = 10\nvalue = [0, 0, 0, 5, 5, 0]\nclass = 6"] ;
423 -> 424 ;
425 [label="entropy = 0.0\nsamples = 4\nvalue = [0, 0, 0, 4, 0, 0]\nclass = 6"] ;
424 -> 425 ;
426 [label="citric acid <= 0.53\nentropy = 0.65\nsamples = 6\nvalue = [0, 0, 0, 1, 5, 0]\nclass = 7"] ;
424 -> 426 ;
427 [label="entropy = 0.0\nsamples = 5\nvalue = [0, 0, 0, 0, 5, 0]\nclass = 7"] ;
426 -> 427 ;
428 [label="entropy = 0.0\nsamples = 1\nvalue = [0, 0, 0, 1, 0, 0]\nclass = 6"] ;
426 -> 428 ;
429 [label="volatile acidity <= 0.185\nentropy = 0.371\nsamples = 14\nvalue = [0, 0, 1, 13, 0, 0]\nclass = 6"] ;
423 -> 429 ;
430 [label="entropy = 0.0\nsamples = 1\nvalue = [0, 0, 1, 0, 0, 0]\nclass = 5"] ;
429 -> 430 ;
431 [label="entropy = 0.0\nsamples = 13\nvalue = [0, 0, 0, 13, 0, 0]\nclass = 6"] ;
429 -> 431 ;
432 [label="fixed acidity <= 8.1\nentropy = 1.061\nsamples = 8\nvalue = [0, 0, 6, 1, 1, 0]\nclass = 5"] ;
422 -> 432 ;
433 [label="entropy = 0.0\nsamples = 6\nvalue = [0, 0, 6, 0, 0, 0]\nclass = 5"] ;
432 -> 433 ;
434 [label="sulphates <= 0.885\nentropy = 1.0\nsamples = 2\nvalue = [0, 0, 0, 1, 1, 0]\nclass = 6"] ;
432 -> 434 ;
435 [label="entropy = 0.0\nsamples = 1\nvalue = [0, 0, 0, 1, 0, 0]\nclass = 6"] ;
434 -> 435 ;
436 [label="entropy = 0.0\nsamples = 1\nvalue = [0, 0, 0, 0, 1, 0]\nclass = 7"] ;
434 -> 436 ;
437 [label="residual sugar <= 2.95\nentropy = 1.307\nsamples = 111\nvalue = [0, 3, 20, 76, 12, 0]\nclass = 6"] ;
407 -> 437 ;
438 [label="total sulfur dioxide <= 27.5\nentropy = 1.011\nsamples = 89\nvalue = [0, 1, 14, 69, 5, 0]\nclass = 6"] ;
437 -> 438 ;
439 [label="total sulfur dioxide <= 11.5\nentropy = 0.4\nsamples = 32\nvalue = [0, 1, 0, 30, 1, 0]\nclass = 6"] ;
438 -> 439 ;
440 [label="entropy = 0.0\nsamples = 1\nvalue = [0, 1, 0, 0, 0, 0]\nclass = 4"] ;
439 -> 440 ;
441 [label="pH <= 3.18\nentropy = 0.206\nsamples = 31\nvalue = [0, 0, 0, 30, 1, 0]\nclass = 6"] ;
439 -> 441 ;
442 [label="fixed acidity <= 10.3\nentropy = 0.722\nsamples = 5\nvalue = [0, 0, 0, 4, 1, 0]\nclass = 6"] ;
441 -> 442 ;
443 [label="entropy = 0.0\nsamples = 1\nvalue = [0, 0, 0, 0, 1, 0]\nclass = 7"] ;
442 -> 443 ;
444 [label="entropy = 0.0\nsamples = 4\nvalue = [0, 0, 0, 4, 0, 0]\nclass = 6"] ;
442 -> 444 ;
445 [label="entropy = 0.0\nsamples = 26\nvalue = [0, 0, 0, 26, 0, 0]\nclass = 6"] ;
441 -> 445 ;
446 [label="total sulfur dioxide <= 36.5\nentropy = 1.141\nsamples = 57\nvalue = [0, 0, 14, 39, 4, 0]\nclass = 6"] ;
438 -> 446 ;
447 [label="sulphates <= 0.665\nentropy = 1.53\nsamples = 15\nvalue = [0, 0, 4, 7, 4, 0]\nclass = 6"] ;
446 -> 447 ;
448 [label="residual sugar <= 1.75\nentropy = 0.764\nsamples = 9\nvalue = [0, 0, 2, 7, 0, 0]\nclass = 6"] ;
447 -> 448 ;
449 [label="entropy = 0.0\nsamples = 2\nvalue = [0, 0, 2, 0, 0, 0]\nclass = 5"] ;
448 -> 449 ;
450 [label="entropy = 0.0\nsamples = 7\nvalue = [0, 0, 0, 7, 0, 0]\nclass = 6"] ;
448 -> 450 ;
451 [label="fixed acidity <= 7.6\nentropy = 0.918\nsamples = 6\nvalue = [0, 0, 2, 0, 4, 0]\nclass = 7"] ;
447 -> 451 ;
452 [label="entropy = 0.0\nsamples = 3\nvalue = [0, 0, 0, 0, 3, 0]\nclass = 7"] ;
451 -> 452 ;
453 [label="free sulfur dioxide <= 12.0\nentropy = 0.918\nsamples = 3\nvalue = [0, 0, 2, 0, 1, 0]\nclass = 5"] ;
451 -> 453 ;
454 [label="entropy = 0.0\nsamples = 1\nvalue = [0, 0, 0, 0, 1, 0]\nclass = 7"] ;
453 -> 454 ;
455 [label="entropy = 0.0\nsamples = 2\nvalue = [0, 0, 2, 0, 0, 0]\nclass = 5"] ;
453 -> 455 ;
456 [label="free sulfur dioxide <= 12.5\nentropy = 0.792\nsamples = 42\nvalue = [0, 0, 10, 32, 0, 0]\nclass = 6"] ;
446 -> 456 ;
457 [label="entropy = 0.0\nsamples = 5\nvalue = [0, 0, 5, 0, 0, 0]\nclass = 5"] ;
456 -> 457 ;
458 [label="volatile acidity <= 0.82\nentropy = 0.571\nsamples = 37\nvalue = [0, 0, 5, 32, 0, 0]\nclass = 6"] ;
456 -> 458 ;
459 [label="alcohol <= 11.033\nentropy = 0.422\nsamples = 35\nvalue = [0, 0, 3, 32, 0, 0]\nclass = 6"] ;
458 -> 459 ;
460 [label="residual sugar <= 2.7\nentropy = 0.629\nsamples = 19\nvalue = [0, 0, 3, 16, 0, 0]\nclass = 6"] ;
459 -> 460 ;
461 [label="total sulfur dioxide <= 55.5\nentropy = 0.503\nsamples = 18\nvalue = [0, 0, 2, 16, 0, 0]\nclass = 6"] ;
460 -> 461 ;
462 [label="total sulfur dioxide <= 54.0\nentropy = 0.722\nsamples = 10\nvalue = [0, 0, 2, 8, 0, 0]\nclass = 6"] ;
461 -> 462 ;
463 [label="chlorides <= 0.093\nentropy = 0.503\nsamples = 9\nvalue = [0, 0, 1, 8, 0, 0]\nclass = 6"] ;
462 -> 463 ;
464 [label="entropy = 0.0\nsamples = 8\nvalue = [0, 0, 0, 8, 0, 0]\nclass = 6"] ;
463 -> 464 ;
465 [label="entropy = 0.0\nsamples = 1\nvalue = [0, 0, 1, 0, 0, 0]\nclass = 5"] ;
463 -> 465 ;
466 [label="entropy = 0.0\nsamples = 1\nvalue = [0, 0, 1, 0, 0, 0]\nclass = 5"] ;
462 -> 466 ;
467 [label="entropy = 0.0\nsamples = 8\nvalue = [0, 0, 0, 8, 0, 0]\nclass = 6"] ;
461 -> 467 ;
468 [label="entropy = 0.0\nsamples = 1\nvalue = [0, 0, 1, 0, 0, 0]\nclass = 5"] ;
460 -> 468 ;
469 [label="entropy = 0.0\nsamples = 16\nvalue = [0, 0, 0, 16, 0, 0]\nclass = 6"] ;
459 -> 469 ;
470 [label="entropy = 0.0\nsamples = 2\nvalue = [0, 0, 2, 0, 0, 0]\nclass = 5"] ;
458 -> 470 ;
471 [label="pH <= 3.325\nentropy = 1.877\nsamples = 22\nvalue = [0, 2, 6, 7, 7, 0]\nclass = 6"] ;
437 -> 471 ;
472 [label="residual sugar <= 4.0\nentropy = 1.46\nsamples = 13\nvalue = [0, 0, 6, 5, 2, 0]\nclass = 5"] ;
471 -> 472 ;
473 [label="free sulfur dioxide <= 28.5\nentropy = 1.379\nsamples = 7\nvalue = [0, 0, 1, 4, 2, 0]\nclass = 6"] ;
472 -> 473 ;
474 [label="density <= 1.0\nentropy = 0.918\nsamples = 6\nvalue = [0, 0, 0, 4, 2, 0]\nclass = 6"] ;
473 -> 474 ;
475 [label="chlorides <= 0.08\nentropy = 0.918\nsamples = 3\nvalue = [0, 0, 0, 1, 2, 0]\nclass = 7"] ;
474 -> 475 ;
476 [label="entropy = 0.0\nsamples = 1\nvalue = [0, 0, 0, 1, 0, 0]\nclass = 6"] ;
475 -> 476 ;
477 [label="entropy = 0.0\nsamples = 2\nvalue = [0, 0, 0, 0, 2, 0]\nclass = 7"] ;
475 -> 477 ;
478 [label="entropy = 0.0\nsamples = 3\nvalue = [0, 0, 0, 3, 0, 0]\nclass = 6"] ;
474 -> 478 ;
479 [label="entropy = 0.0\nsamples = 1\nvalue = [0, 0, 1, 0, 0, 0]\nclass = 5"] ;
473 -> 479 ;
480 [label="residual sugar <= 5.725\nentropy = 0.65\nsamples = 6\nvalue = [0, 0, 5, 1, 0, 0]\nclass = 5"] ;
472 -> 480 ;
481 [label="entropy = 0.0\nsamples = 5\nvalue = [0, 0, 5, 0, 0, 0]\nclass = 5"] ;
480 -> 481 ;
482 [label="entropy = 0.0\nsamples = 1\nvalue = [0, 0, 0, 1, 0, 0]\nclass = 6"] ;
480 -> 482 ;
483 [label="pH <= 3.42\nentropy = 1.436\nsamples = 9\nvalue = [0, 2, 0, 2, 5, 0]\nclass = 7"] ;
471 -> 483 ;
484 [label="entropy = 0.0\nsamples = 5\nvalue = [0, 0, 0, 0, 5, 0]\nclass = 7"] ;
483 -> 484 ;
485 [label="chlorides <= 0.104\nentropy = 1.0\nsamples = 4\nvalue = [0, 2, 0, 2, 0, 0]\nclass = 4"] ;
483 -> 485 ;
486 [label="entropy = 0.0\nsamples = 2\nvalue = [0, 0, 0, 2, 0, 0]\nclass = 6"] ;
485 -> 486 ;
487 [label="entropy = 0.0\nsamples = 2\nvalue = [0, 2, 0, 0, 0, 0]\nclass = 4"] ;
485 -> 487 ;
488 [label="alcohol <= 12.55\nentropy = 1.469\nsamples = 130\nvalue = [0, 0, 4, 51, 65, 10]\nclass = 7"] ;
406 -> 488 ;
489 [label="volatile acidity <= 0.575\nentropy = 1.225\nsamples = 95\nvalue = [0, 0, 1, 38, 53, 3]\nclass = 7"] ;
488 -> 489 ;
490 [label="residual sugar <= 2.35\nentropy = 1.13\nsamples = 78\nvalue = [0, 0, 0, 26, 49, 3]\nclass = 7"] ;
489 -> 490 ;
491 [label="free sulfur dioxide <= 13.5\nentropy = 1.319\nsamples = 38\nvalue = [0, 0, 0, 18, 17, 3]\nclass = 6"] ;
490 -> 491 ;
492 [label="volatile acidity <= 0.312\nentropy = 1.236\nsamples = 20\nvalue = [0, 0, 0, 5, 13, 2]\nclass = 7"] ;
491 -> 492 ;
493 [label="entropy = 0.0\nsamples = 10\nvalue = [0, 0, 0, 0, 10, 0]\nclass = 7"] ;
492 -> 493 ;
494 [label="residual sugar <= 1.85\nentropy = 1.485\nsamples = 10\nvalue = [0, 0, 0, 5, 3, 2]\nclass = 6"] ;
492 -> 494 ;
495 [label="pH <= 3.46\nentropy = 0.918\nsamples = 3\nvalue = [0, 0, 0, 0, 1, 2]\nclass = 8"] ;
494 -> 495 ;
496 [label="entropy = 0.0\nsamples = 2\nvalue = [0, 0, 0, 0, 0, 2]\nclass = 8"] ;
495 -> 496 ;
497 [label="entropy = 0.0\nsamples = 1\nvalue = [0, 0, 0, 0, 1, 0]\nclass = 7"] ;
495 -> 497 ;
498 [label="pH <= 3.185\nentropy = 0.863\nsamples = 7\nvalue = [0, 0, 0, 5, 2, 0]\nclass = 6"] ;
494 -> 498 ;
499 [label="entropy = 0.0\nsamples = 2\nvalue = [0, 0, 0, 0, 2, 0]\nclass = 7"] ;
498 -> 499 ;
500 [label="entropy = 0.0\nsamples = 5\nvalue = [0, 0, 0, 5, 0, 0]\nclass = 6"] ;
498 -> 500 ;
501 [label="citric acid <= 0.535\nentropy = 1.053\nsamples = 18\nvalue = [0, 0, 0, 13, 4, 1]\nclass = 6"] ;
491 -> 501 ;
502 [label="pH <= 3.475\nentropy = 0.787\nsamples = 17\nvalue = [0, 0, 0, 13, 4, 0]\nclass = 6"] ;
501 -> 502 ;
503 [label="free sulfur dioxide <= 30.5\nentropy = 0.567\nsamples = 15\nvalue = [0, 0, 0, 13, 2, 0]\nclass = 6"] ;
502 -> 503 ;
504 [label="entropy = 0.0\nsamples = 11\nvalue = [0, 0, 0, 11, 0, 0]\nclass = 6"] ;
503 -> 504 ;
505 [label="pH <= 3.26\nentropy = 1.0\nsamples = 4\nvalue = [0, 0, 0, 2, 2, 0]\nclass = 6"] ;
503 -> 505 ;
506 [label="entropy = 0.0\nsamples = 2\nvalue = [0, 0, 0, 2, 0, 0]\nclass = 6"] ;
505 -> 506 ;
507 [label="entropy = 0.0\nsamples = 2\nvalue = [0, 0, 0, 0, 2, 0]\nclass = 7"] ;
505 -> 507 ;
508 [label="entropy = 0.0\nsamples = 2\nvalue = [0, 0, 0, 0, 2, 0]\nclass = 7"] ;
502 -> 508 ;
509 [label="entropy = 0.0\nsamples = 1\nvalue = [0, 0, 0, 0, 0, 1]\nclass = 8"] ;
501 -> 509 ;
510 [label="alcohol <= 12.05\nentropy = 0.722\nsamples = 40\nvalue = [0, 0, 0, 8, 32, 0]\nclass = 7"] ;
490 -> 510 ;
511 [label="sulphates <= 0.64\nentropy = 0.904\nsamples = 25\nvalue = [0, 0, 0, 8, 17, 0]\nclass = 7"] ;
510 -> 511 ;
512 [label="entropy = 0.0\nsamples = 3\nvalue = [0, 0, 0, 3, 0, 0]\nclass = 6"] ;
511 -> 512 ;
513 [label="fixed acidity <= 10.7\nentropy = 0.773\nsamples = 22\nvalue = [0, 0, 0, 5, 17, 0]\nclass = 7"] ;
511 -> 513 ;
514 [label="citric acid <= 0.515\nentropy = 0.61\nsamples = 20\nvalue = [0, 0, 0, 3, 17, 0]\nclass = 7"] ;
513 -> 514 ;
515 [label="sulphates <= 0.75\nentropy = 0.881\nsamples = 10\nvalue = [0, 0, 0, 3, 7, 0]\nclass = 7"] ;
514 -> 515 ;
516 [label="entropy = 0.0\nsamples = 5\nvalue = [0, 0, 0, 0, 5, 0]\nclass = 7"] ;
515 -> 516 ;
517 [label="residual sugar <= 2.95\nentropy = 0.971\nsamples = 5\nvalue = [0, 0, 0, 3, 2, 0]\nclass = 6"] ;
515 -> 517 ;
518 [label="citric acid <= 0.445\nentropy = 0.918\nsamples = 3\nvalue = [0, 0, 0, 1, 2, 0]\nclass = 7"] ;
517 -> 518 ;
519 [label="entropy = 0.0\nsamples = 2\nvalue = [0, 0, 0, 0, 2, 0]\nclass = 7"] ;
518 -> 519 ;
520 [label="entropy = 0.0\nsamples = 1\nvalue = [0, 0, 0, 1, 0, 0]\nclass = 6"] ;
518 -> 520 ;
521 [label="entropy = 0.0\nsamples = 2\nvalue = [0, 0, 0, 2, 0, 0]\nclass = 6"] ;
517 -> 521 ;
522 [label="entropy = 0.0\nsamples = 10\nvalue = [0, 0, 0, 0, 10, 0]\nclass = 7"] ;
514 -> 522 ;
523 [label="entropy = 0.0\nsamples = 2\nvalue = [0, 0, 0, 2, 0, 0]\nclass = 6"] ;
513 -> 523 ;
524 [label="entropy = 0.0\nsamples = 15\nvalue = [0, 0, 0, 0, 15, 0]\nclass = 7"] ;
510 -> 524 ;
525 [label="citric acid <= 0.045\nentropy = 1.086\nsamples = 17\nvalue = [0, 0, 1, 12, 4, 0]\nclass = 6"] ;
489 -> 525 ;
526 [label="sulphates <= 0.66\nentropy = 0.985\nsamples = 7\nvalue = [0, 0, 0, 3, 4, 0]\nclass = 7"] ;
525 -> 526 ;
527 [label="entropy = 0.0\nsamples = 3\nvalue = [0, 0, 0, 3, 0, 0]\nclass = 6"] ;
526 -> 527 ;
528 [label="entropy = 0.0\nsamples = 4\nvalue = [0, 0, 0, 0, 4, 0]\nclass = 7"] ;
526 -> 528 ;
529 [label="citric acid <= 0.105\nentropy = 0.469\nsamples = 10\nvalue = [0, 0, 1, 9, 0, 0]\nclass = 6"] ;
525 -> 529 ;
530 [label="alcohol <= 11.85\nentropy = 1.0\nsamples = 2\nvalue = [0, 0, 1, 1, 0, 0]\nclass = 5"] ;
529 -> 530 ;
531 [label="entropy = 0.0\nsamples = 1\nvalue = [0, 0, 0, 1, 0, 0]\nclass = 6"] ;
530 -> 531 ;
532 [label="entropy = 0.0\nsamples = 1\nvalue = [0, 0, 1, 0, 0, 0]\nclass = 5"] ;
530 -> 532 ;
533 [label="entropy = 0.0\nsamples = 8\nvalue = [0, 0, 0, 8, 0, 0]\nclass = 6"] ;
529 -> 533 ;
534 [label="sulphates <= 0.685\nentropy = 1.828\nsamples = 35\nvalue = [0, 0, 3, 13, 12, 7]\nclass = 6"] ;
488 -> 534 ;
535 [label="citric acid <= 0.72\nentropy = 1.041\nsamples = 12\nvalue = [0, 0, 2, 9, 1, 0]\nclass = 6"] ;
534 -> 535 ;
536 [label="total sulfur dioxide <= 48.0\nentropy = 0.684\nsamples = 11\nvalue = [0, 0, 2, 9, 0, 0]\nclass = 6"] ;
535 -> 536 ;
537 [label="entropy = 0.0\nsamples = 7\nvalue = [0, 0, 0, 7, 0, 0]\nclass = 6"] ;
536 -> 537 ;
538 [label="fixed acidity <= 5.3\nentropy = 1.0\nsamples = 4\nvalue = [0, 0, 2, 2, 0, 0]\nclass = 5"] ;
536 -> 538 ;
539 [label="entropy = 0.0\nsamples = 2\nvalue = [0, 0, 0, 2, 0, 0]\nclass = 6"] ;
538 -> 539 ;
540 [label="entropy = 0.0\nsamples = 2\nvalue = [0, 0, 2, 0, 0, 0]\nclass = 5"] ;
538 -> 540 ;
541 [label="entropy = 0.0\nsamples = 1\nvalue = [0, 0, 0, 0, 1, 0]\nclass = 7"] ;
535 -> 541 ;
542 [label="pH <= 3.285\nentropy = 1.667\nsamples = 23\nvalue = [0, 0, 1, 4, 11, 7]\nclass = 7"] ;
534 -> 542 ;
543 [label="total sulfur dioxide <= 21.5\nentropy = 1.459\nsamples = 6\nvalue = [0, 0, 1, 2, 0, 3]\nclass = 8"] ;
542 -> 543 ;
544 [label="entropy = 0.0\nsamples = 3\nvalue = [0, 0, 0, 0, 0, 3]\nclass = 8"] ;
543 -> 544 ;
545 [label="alcohol <= 14.1\nentropy = 0.918\nsamples = 3\nvalue = [0, 0, 1, 2, 0, 0]\nclass = 6"] ;
543 -> 545 ;
546 [label="entropy = 0.0\nsamples = 2\nvalue = [0, 0, 0, 2, 0, 0]\nclass = 6"] ;
545 -> 546 ;
547 [label="entropy = 0.0\nsamples = 1\nvalue = [0, 0, 1, 0, 0, 0]\nclass = 5"] ;
545 -> 547 ;
548 [label="alcohol <= 13.8\nentropy = 1.261\nsamples = 17\nvalue = [0, 0, 0, 2, 11, 4]\nclass = 7"] ;
542 -> 548 ;
549 [label="volatile acidity <= 0.52\nentropy = 0.65\nsamples = 12\nvalue = [0, 0, 0, 0, 10, 2]\nclass = 7"] ;
548 -> 549 ;
550 [label="entropy = 0.0\nsamples = 9\nvalue = [0, 0, 0, 0, 9, 0]\nclass = 7"] ;
549 -> 550 ;
551 [label="chlorides <= 0.045\nentropy = 0.918\nsamples = 3\nvalue = [0, 0, 0, 0, 1, 2]\nclass = 8"] ;
549 -> 551 ;
552 [label="entropy = 0.0\nsamples = 1\nvalue = [0, 0, 0, 0, 1, 0]\nclass = 7"] ;
551 -> 552 ;
553 [label="entropy = 0.0\nsamples = 2\nvalue = [0, 0, 0, 0, 0, 2]\nclass = 8"] ;
551 -> 553 ;
554 [label="fixed acidity <= 4.95\nentropy = 1.522\nsamples = 5\nvalue = [0, 0, 0, 2, 1, 2]\nclass = 6"] ;
548 -> 554 ;
555 [label="entropy = 0.0\nsamples = 1\nvalue = [0, 0, 0, 0, 1, 0]\nclass = 7"] ;
554 -> 555 ;
556 [label="density <= 0.991\nentropy = 1.0\nsamples = 4\nvalue = [0, 0, 0, 2, 0, 2]\nclass = 6"] ;
554 -> 556 ;
557 [label="entropy = 0.0\nsamples = 1\nvalue = [0, 0, 0, 0, 0, 1]\nclass = 8"] ;
556 -> 557 ;
558 [label="sulphates <= 0.765\nentropy = 0.918\nsamples = 3\nvalue = [0, 0, 0, 2, 0, 1]\nclass = 6"] ;
556 -> 558 ;
559 [label="entropy = 0.0\nsamples = 1\nvalue = [0, 0, 0, 0, 0, 1]\nclass = 8"] ;
558 -> 559 ;
560 [label="entropy = 0.0\nsamples = 2\nvalue = [0, 0, 0, 2, 0, 0]\nclass = 6"] ;
558 -> 560 ;
}